<?xml version="1.0"?>
<opencv_storage>
<cascade>
  <size>
    24 24</size>
  <stages>
    <_>
      <trees>
        <_>
          <_>
            <feature>
              <rects>
                <_>
                  23 1 1 12 -1.</_>
                <_>
                  23 1 1 6 2.</_></rects>
              <tilted>1</tilted></feature>
            <threshold>1.0748106433311477e-004</threshold>
            <left_val>-9.7849462365591400e-001</left_val>
            <right_val>8.6407766990291313e-001</right_val></_></_>
        <_>
          <_>
            <feature>
              <rects>
                <_>
                  12 1 7 2 -1.</_>
                <_>
                  12 2 7 1 2.</_></rects>
              <tilted>0</tilted></feature>
            <threshold>-1.7913511328515597e-005</threshold>
            <left_val>8.6594208434166198e-001</left_val>
            <right_val>-9.4886228519370286e-001</right_val></_></_></trees>
      <stage_threshold>-1.1255253851413727e-001</stage_threshold>
      <parent>-1</parent>
      <next>-1</next></_>
    <_>
      <trees>
        <_>
          <_>
            <feature>
              <rects>
                <_>
                  15 3 7 2 -1.</_>
                <_>
                  15 4 7 1 2.</_></rects>
              <tilted>0</tilted></feature>
            <threshold>-1.7913511328515597e-005</threshold>
            <left_val>8.4466019417475768e-001</left_val>
            <right_val>-9.5698924731182788e-001</right_val></_></_>
        <_>
          <_>
            <feature>
              <rects>
                <_>
                  0 3 6 2 -1.</_>
                <_>
                  0 4 6 1 2.</_></rects>
              <tilted>0</tilted></feature>
            <threshold>-1.6646326912450604e-005</threshold>
            <left_val>8.8560052807422862e-001</left_val>
            <right_val>-9.3464127066247193e-001</right_val></_></_></trees>
      <stage_threshold>-8.9981079101562500e-002</stage_threshold>
      <parent>0</parent>
      <next>-1</next></_></stages></cascade>
</opencv_storage>
